digraph Tree {
node [shape=box] ;
0 [label="X[0] <= 2.0\ngini = 0.5\nsamples = 90\nvalue = [45.0, 45.0]"] ;
1 [label="X[0] <= 0.5\ngini = 0.099\nsamples = 8\nvalue = [12.6, 0.692]"] ;
0 -> 1 [labeldistance=2.5, labelangle=45, headlabel="True"] ;
2 [label="gini = 0.0\nsamples = 6\nvalue = [10.8, 0.0]"] ;
1 -> 2 ;
3 [label="X[9] <= 4.0\ngini = 0.401\nsamples = 2\nvalue = [1.8, 0.692]"] ;
1 -> 3 ;
4 [label="gini = 0.0\nsamples = 1\nvalue = [0.0, 0.692]"] ;
3 -> 4 ;
5 [label="gini = 0.0\nsamples = 1\nvalue = [1.8, 0.0]"] ;
3 -> 5 ;
6 [label="X[19] <= 4.5\ngini = 0.488\nsamples = 82\nvalue = [32.4, 44.308]"] ;
0 -> 6 [labeldistance=2.5, labelangle=-45, headlabel="False"] ;
7 [label="X[0] <= 3.5\ngini = 0.422\nsamples = 56\nvalue = [14.4, 33.231]"] ;
6 -> 7 ;
8 [label="X[17] <= 1.5\ngini = 0.439\nsamples = 9\nvalue = [7.2, 3.462]"] ;
7 -> 8 ;
9 [label="X[19] <= 1.5\ngini = 0.271\nsamples = 6\nvalue = [7.2, 1.385]"] ;
8 -> 9 ;
10 [label="X[2] <= 1.5\ngini = 0.16\nsamples = 5\nvalue = [7.2, 0.692]"] ;
9 -> 10 ;
11 [label="X[1] <= 4.0\ngini = 0.401\nsamples = 2\nvalue = [1.8, 0.692]"] ;
10 -> 11 ;
12 [label="gini = 0.0\nsamples = 1\nvalue = [0.0, 0.692]"] ;
11 -> 12 ;
13 [label="gini = 0.0\nsamples = 1\nvalue = [1.8, 0.0]"] ;
11 -> 13 ;
14 [label="gini = -0.0\nsamples = 3\nvalue = [5.4, 0.0]"] ;
10 -> 14 ;
15 [label="gini = 0.0\nsamples = 1\nvalue = [0.0, 0.692]"] ;
9 -> 15 ;
16 [label="gini = -0.0\nsamples = 3\nvalue = [0.0, 2.077]"] ;
8 -> 16 ;
17 [label="X[0] <= 7.5\ngini = 0.314\nsamples = 47\nvalue = [7.2, 29.769]"] ;
7 -> 17 ;
18 [label="X[33] <= 3.5\ngini = 0.135\nsamples = 34\nvalue = [1.8, 22.846]"] ;
17 -> 18 ;
19 [label="gini = 0.0\nsamples = 26\nvalue = [0.0, 18.0]"] ;
18 -> 19 ;
20 [label="X[40] <= 2.5\ngini = 0.395\nsamples = 8\nvalue = [1.8, 4.846]"] ;
18 -> 20 ;
21 [label="gini = 0.0\nsamples = 6\nvalue = [0.0, 4.154]"] ;
20 -> 21 ;
22 [label="X[6] <= 4.5\ngini = 0.401\nsamples = 2\nvalue = [1.8, 0.692]"] ;
20 -> 22 ;
23 [label="gini = 0.0\nsamples = 1\nvalue = [1.8, 0.0]"] ;
22 -> 23 ;
24 [label="gini = 0.0\nsamples = 1\nvalue = [0.0, 0.692]"] ;
22 -> 24 ;
25 [label="X[13] <= 7.0\ngini = 0.492\nsamples = 13\nvalue = [5.4, 6.923]"] ;
17 -> 25 ;
26 [label="gini = -0.0\nsamples = 8\nvalue = [0.0, 5.538]"] ;
25 -> 26 ;
27 [label="X[45] <= 1.5\ngini = 0.325\nsamples = 5\nvalue = [5.4, 1.385]"] ;
25 -> 27 ;
28 [label="X[14] <= 4.5\ngini = 0.201\nsamples = 4\nvalue = [5.4, 0.692]"] ;
27 -> 28 ;
29 [label="gini = 0.401\nsamples = 2\nvalue = [1.8, 0.692]"] ;
28 -> 29 ;
30 [label="gini = 0.0\nsamples = 2\nvalue = [3.6, 0.0]"] ;
28 -> 30 ;
31 [label="gini = 0.0\nsamples = 1\nvalue = [0.0, 0.692]"] ;
27 -> 31 ;
32 [label="X[26] <= 6.5\ngini = 0.472\nsamples = 26\nvalue = [18.0, 11.077]"] ;
6 -> 32 ;
33 [label="X[15] <= 1.5\ngini = 0.271\nsamples = 15\nvalue = [18.0, 3.462]"] ;
32 -> 33 ;
34 [label="gini = 0.0\nsamples = 3\nvalue = [0.0, 2.077]"] ;
33 -> 34 ;
35 [label="X[12] <= 1.5\ngini = 0.133\nsamples = 12\nvalue = [18.0, 1.385]"] ;
33 -> 35 ;
36 [label="gini = 0.0\nsamples = 1\nvalue = [0.0, 0.692]"] ;
35 -> 36 ;
37 [label="X[26] <= 4.5\ngini = 0.071\nsamples = 11\nvalue = [18.0, 0.692]"] ;
35 -> 37 ;
38 [label="gini = -0.0\nsamples = 9\nvalue = [16.2, 0.0]"] ;
37 -> 38 ;
39 [label="gini = 0.401\nsamples = 2\nvalue = [1.8, 0.692]"] ;
37 -> 39 ;
40 [label="gini = 0.0\nsamples = 11\nvalue = [0.0, 7.615]"] ;
32 -> 40 ;
}